{
  "numInputs": 6,
  "weights_IH": {
    "data": "1.0129403 -0.9830581 -0.7216675 -0.008194788 -0.42886642 0.47793287 -0.9438035 -0.56726974 0.50783396 0.96674734 0.09783941 0.5561957 -0.76226723 -1.0744872 -0.7169764 -0.7420888 -0.5262898 -0.6358604 0.013042541 0.9549988 -0.52032304 -0.733191 0.6502113 -0.37453666 0.30522847 0.6356231 0.11007946 -0.8593331 -0.36851782 -0.35448214 0.46572912 -0.890559 -0.69224244 0.8613301 -0.6283618 0.8908672 -0.78134763 0.8861064 -0.93317175 -0.2736438 0.6388451 -0.20965163 0.9564268 -0.5834107 0.8701499 -0.1758583 -0.1605264 -0.8448258 -0.38422552 0.4261485 -0.58107543 -0.46988973 -0.84115887 -0.46798918 -0.32591543 -0.527492 0.6399516 0.92450404 -0.44432163 0.47483036 ",
    "rows": 10,
    "cols": 6
  },
  "bias_O": {
    "data": "-0.43922406 ",
    "rows": 1,
    "cols": 1
  },
  "weights_HO": {
    "data": "1.0437294 -1.0434335 -0.5956514 1.0975294 0.7793437 -0.24344955 -1.1784707 0.80104774 0.24944021 -0.92893165 ",
    "rows": 1,
    "cols": 10
  },
  "hiddenLayers": [{
    "numHiddens": 10,
    "bias_H": {
      "data": "0.12761812 -0.114810884 0.41944468 0.18780108 -0.62351286 0.27507043 -0.3296982 0.4473764 -0.6840528 -1.1270443 ",
      "rows": 10,
      "cols": 1
    }
  }],
  "numOutputs": 1
}