{
  "numInputs": 6,
  "weights_IH": {
    "data": "0.8655006 0.86588836 -0.21883203 0.66502434 0.97085017 -0.41295415 -0.22453251 0.05754705 -0.8047706 0.090439826 -0.8375434 -0.5043149 0.5007086 0.278822 0.7130859 -0.023102287 0.9658483 -0.29877374 -0.54154825 0.17260966 0.39345205 0.58806866 -0.3935903 0.57982886 0.7451637 -0.5713767 0.88906837 0.966878 -0.6072827 0.9268719 -0.7227408 -0.19040762 0.95884967 -0.5919459 -0.18746941 0.9319104 ",
    "rows": 6,
    "cols": 6
  },
  "weights_HH": [{
    "data": "0.8665885 -0.95292634 -0.3158294 -0.8551361 -0.3761668 -0.348757 -0.3817883 -0.6794469 -0.6591521 -0.8463231 -0.852672 0.04276797 -0.9885112 -0.54002464 0.39498597 -0.25650287 0.68469274 0.839662 -0.3658365 0.06464332 0.8109551 -0.33482605 0.07040599 0.07684209 ",
    "rows": 4,
    "cols": 6
  }],
  "bias_O": {
    "data": "0.21412642 ",
    "rows": 1,
    "cols": 1
  },
  "weights_HO": {
    "data": "-0.23077017 0.9750266 -0.94906026 -0.05764093 ",
    "rows": 1,
    "cols": 4
  },
  "hiddenLayers": [
    {
      "numHiddens": 6,
      "bias_H": {
        "data": "-0.13711369 -0.9258948 0.21601792 -0.37338135 -0.080938324 0.18286204 ",
        "rows": 6,
        "cols": 1
      }
    },
    {
      "numHiddens": 4,
      "bias_H": {
        "data": "-0.014374181 -0.65700406 -0.96604955 -0.99147135 ",
        "rows": 4,
        "cols": 1
      }
    }
  ],
  "numOutputs": 1
}