{
  "numInputs": 6,
  "weights_IH": {
    "data": "0.9971424 0.6938294 1.0737401 -0.24303159 -0.37068975 -0.7410121 0.44036967 -0.905063 0.01473585 0.42872864 0.79105675 0.762056 -0.56901944 0.1891032 -0.6213953 -0.83818823 -0.89388543 -0.96919715 -0.70387954 0.4352783 0.024721965 0.57825935 0.37688404 0.35767344 -0.65404713 -0.28288436 -0.8442505 0.42764017 0.0696064 0.36271456 -0.73100513 -0.41290736 -0.13174094 0.560753 -0.05017528 -0.22366717 0.94015557 -0.79423326 -1.0467554 -0.91664207 -0.84189403 0.5388934 0.9771244 -0.6735961 -0.74404 -0.22602731 0.22254793 0.6520141 0.72101235 0.51929647 0.5585854 -0.12361266 0.6496741 0.7194585 0.31955272 0.454257 0.66124153 -0.36817408 -0.2095419 0.60496974 ",
    "rows": 10,
    "cols": 6
  },
  "bias_O": {
    "data": "-0.055005606 ",
    "rows": 1,
    "cols": 1
  },
  "weights_HO": {
    "data": "1.2304488 0.18365659 -0.26812923 0.01347509 -0.97391987 -0.7754155 1.0595016 0.00267962 -1.0378399 -0.08196761 ",
    "rows": 1,
    "cols": 10
  },
  "hiddenLayers": [{
    "numHiddens": 10,
    "bias_H": {
      "data": "0.23379496 0.15727666 -0.5949709 -0.6211976 -0.42954934 -0.48992562 0.8177697 0.30649596 0.72079587 0.23032692 ",
      "rows": 10,
      "cols": 1
    }
  }],
  "numOutputs": 1
}